digraph Tree {
node [shape=box, style="filled, rounded", color="black", fontname="helvetica"] ;
edge [fontname="helvetica"] ;
0 [label=<Distancia_Bala2 &le; 188.0<br/>gini = 0.494<br/>samples = 100.0%<br/>value = [0.555, 0.445]<br/>class = No_Izquierda>, fillcolor="#fae6d8"] ;
1 [label=<Distancia_Bala2 &le; 156.0<br/>gini = 0.058<br/>samples = 41.1%<br/>value = [0.03, 0.97]<br/>class = Izquierda>, fillcolor="#3fa0e6"] ;
0 -> 1 [labeldistance=2.5, labelangle=45, headlabel="True"] ;
2 [label=<Distancia_Bala &le; 27.5<br/>gini = 0.008<br/>samples = 36.6%<br/>value = [0.004, 0.996]<br/>class = Izquierda>, fillcolor="#3a9de5"] ;
1 -> 2 ;
3 [label=<gini = 0.444<br/>samples = 0.2%<br/>value = [0.333, 0.667]<br/>class = Izquierda>, fillcolor="#9ccef2"] ;
2 -> 3 ;
4 [label=<Distancia_Bala2 &le; 153.0<br/>gini = 0.004<br/>samples = 36.3%<br/>value = [0.002, 0.998]<br/>class = Izquierda>, fillcolor="#399de5"] ;
2 -> 4 ;
5 [label=<gini = 0.0<br/>samples = 34.1%<br/>value = [0.0, 1.0]<br/>class = Izquierda>, fillcolor="#399de5"] ;
4 -> 5 ;
6 [label=<Velocidad_Bala &le; -23.5<br/>gini = 0.067<br/>samples = 2.2%<br/>value = [0.034, 0.966]<br/>class = Izquierda>, fillcolor="#40a0e6"] ;
4 -> 6 ;
7 [label=<gini = 0.219<br/>samples = 0.6%<br/>value = [0.125, 0.875]<br/>class = Izquierda>, fillcolor="#55abe9"] ;
6 -> 7 ;
8 [label=<gini = 0.0<br/>samples = 1.6%<br/>value = [0.0, 1.0]<br/>class = Izquierda>, fillcolor="#399de5"] ;
6 -> 8 ;
9 [label=<Distancia_Bala &le; 773.5<br/>gini = 0.362<br/>samples = 4.6%<br/>value = [0.237, 0.763]<br/>class = Izquierda>, fillcolor="#77bbed"] ;
1 -> 9 ;
10 [label=<Distancia_Bala2 &le; 158.0<br/>gini = 0.245<br/>samples = 2.7%<br/>value = [0.143, 0.857]<br/>class = Izquierda>, fillcolor="#5aade9"] ;
9 -> 10 ;
11 [label=<gini = 0.0<br/>samples = 0.1%<br/>value = [1.0, 0.0]<br/>class = No_Izquierda>, fillcolor="#e58139"] ;
10 -> 11 ;
12 [label=<Distancia_Bala2 &le; 175.0<br/>gini = 0.208<br/>samples = 2.6%<br/>value = [0.118, 0.882]<br/>class = Izquierda>, fillcolor="#53aae8"] ;
10 -> 12 ;
13 [label=<gini = 0.142<br/>samples = 2.0%<br/>value = [0.077, 0.923]<br/>class = Izquierda>, fillcolor="#49a5e7"] ;
12 -> 13 ;
14 [label=<gini = 0.375<br/>samples = 0.6%<br/>value = [0.25, 0.75]<br/>class = Izquierda>, fillcolor="#7bbeee"] ;
12 -> 14 ;
15 [label=<Distancia_Bala &le; 1050.0<br/>gini = 0.469<br/>samples = 1.9%<br/>value = [0.375, 0.625]<br/>class = Izquierda>, fillcolor="#b0d8f5"] ;
9 -> 15 ;
16 [label=<gini = 0.0<br/>samples = 0.2%<br/>value = [1.0, 0.0]<br/>class = No_Izquierda>, fillcolor="#e58139"] ;
15 -> 16 ;
17 [label=<Velocidad_Bala &le; -23.5<br/>gini = 0.408<br/>samples = 1.6%<br/>value = [0.286, 0.714]<br/>class = Izquierda>, fillcolor="#88c4ef"] ;
15 -> 17 ;
18 [label=<gini = 0.0<br/>samples = 0.5%<br/>value = [0.0, 1.0]<br/>class = Izquierda>, fillcolor="#399de5"] ;
17 -> 18 ;
19 [label=<gini = 0.49<br/>samples = 1.1%<br/>value = [0.429, 0.571]<br/>class = Izquierda>, fillcolor="#cee6f8"] ;
17 -> 19 ;
20 [label=<Distancia_Bala2 &le; 210.0<br/>gini = 0.145<br/>samples = 58.9%<br/>value = [0.921, 0.079]<br/>class = No_Izquierda>, fillcolor="#e78c4a"] ;
0 -> 20 [labeldistance=2.5, labelangle=-45, headlabel="False"] ;
21 [label=<Distancia_Bala &le; 507.0<br/>gini = 0.463<br/>samples = 6.0%<br/>value = [0.636, 0.364]<br/>class = No_Izquierda>, fillcolor="#f4c9aa"] ;
20 -> 21 ;
22 [label=<Distancia_Bala &le; 155.5<br/>gini = 0.463<br/>samples = 2.6%<br/>value = [0.364, 0.636]<br/>class = Izquierda>, fillcolor="#aad5f4"] ;
21 -> 22 ;
23 [label=<Distancia_Bala &le; 42.0<br/>gini = 0.426<br/>samples = 1.0%<br/>value = [0.692, 0.308]<br/>class = No_Izquierda>, fillcolor="#f1b991"] ;
22 -> 23 ;
24 [label=<gini = 0.49<br/>samples = 0.5%<br/>value = [0.429, 0.571]<br/>class = Izquierda>, fillcolor="#cee6f8"] ;
23 -> 24 ;
25 [label=<gini = 0.0<br/>samples = 0.5%<br/>value = [1.0, 0.0]<br/>class = No_Izquierda>, fillcolor="#e58139"] ;
23 -> 25 ;
26 [label=<Distancia_Bala &le; 328.0<br/>gini = 0.255<br/>samples = 1.5%<br/>value = [0.15, 0.85]<br/>class = Izquierda>, fillcolor="#5caeea"] ;
22 -> 26 ;
27 [label=<gini = 0.0<br/>samples = 0.9%<br/>value = [0.0, 1.0]<br/>class = Izquierda>, fillcolor="#399de5"] ;
26 -> 27 ;
28 [label=<gini = 0.444<br/>samples = 0.7%<br/>value = [0.333, 0.667]<br/>class = Izquierda>, fillcolor="#9ccef2"] ;
26 -> 28 ;
29 [label=<Distancia_Bala &le; 1309.0<br/>gini = 0.268<br/>samples = 3.4%<br/>value = [0.841, 0.159]<br/>class = No_Izquierda>, fillcolor="#ea995e"] ;
21 -> 29 ;
30 [label=<Distancia_Bala2 &le; 200.0<br/>gini = 0.21<br/>samples = 3.3%<br/>value = [0.881, 0.119]<br/>class = No_Izquierda>, fillcolor="#e99254"] ;
29 -> 30 ;
31 [label=<gini = 0.32<br/>samples = 1.9%<br/>value = [0.8, 0.2]<br/>class = No_Izquierda>, fillcolor="#eca06a"] ;
30 -> 31 ;
32 [label=<gini = 0.0<br/>samples = 1.3%<br/>value = [1.0, 0.0]<br/>class = No_Izquierda>, fillcolor="#e58139"] ;
30 -> 32 ;
33 [label=<gini = 0.0<br/>samples = 0.2%<br/>value = [0.0, 1.0]<br/>class = Izquierda>, fillcolor="#399de5"] ;
29 -> 33 ;
34 [label=<Distancia_Bala &le; 367.0<br/>gini = 0.089<br/>samples = 52.9%<br/>value = [0.953, 0.047]<br/>class = No_Izquierda>, fillcolor="#e68743"] ;
20 -> 34 ;
35 [label=<Distancia_Bala2 &le; 395.0<br/>gini = 0.22<br/>samples = 16.0%<br/>value = [0.874, 0.126]<br/>class = No_Izquierda>, fillcolor="#e99355"] ;
34 -> 35 ;
36 [label=<Velocidad_Bala &le; -23.5<br/>gini = 0.35<br/>samples = 8.9%<br/>value = [0.774, 0.226]<br/>class = No_Izquierda>, fillcolor="#eda673"] ;
35 -> 36 ;
37 [label=<gini = 0.5<br/>samples = 3.1%<br/>value = [0.5, 0.5]<br/>class = No_Izquierda>, fillcolor="#ffffff"] ;
36 -> 37 ;
38 [label=<gini = 0.147<br/>samples = 5.8%<br/>value = [0.92, 0.08]<br/>class = No_Izquierda>, fillcolor="#e78c4a"] ;
36 -> 38 ;
39 [label=<gini = 0.0<br/>samples = 7.1%<br/>value = [1.0, 0.0]<br/>class = No_Izquierda>, fillcolor="#e58139"] ;
35 -> 39 ;
40 [label=<Distancia_Bala &le; 1193.0<br/>gini = 0.025<br/>samples = 36.9%<br/>value = [0.987, 0.013]<br/>class = No_Izquierda>, fillcolor="#e5833c"] ;
34 -> 40 ;
41 [label=<Distancia_Bala &le; 1031.0<br/>gini = 0.005<br/>samples = 31.4%<br/>value = [0.998, 0.002]<br/>class = No_Izquierda>, fillcolor="#e58139"] ;
40 -> 41 ;
42 [label=<gini = 0.0<br/>samples = 25.9%<br/>value = [1.0, 0.0]<br/>class = No_Izquierda>, fillcolor="#e58139"] ;
41 -> 42 ;
43 [label=<gini = 0.028<br/>samples = 5.4%<br/>value = [0.986, 0.014]<br/>class = No_Izquierda>, fillcolor="#e5833c"] ;
41 -> 43 ;
44 [label=<Velocidad_Bala &le; -23.5<br/>gini = 0.131<br/>samples = 5.5%<br/>value = [0.93, 0.07]<br/>class = No_Izquierda>, fillcolor="#e78b48"] ;
40 -> 44 ;
45 [label=<gini = 0.375<br/>samples = 1.5%<br/>value = [0.75, 0.25]<br/>class = No_Izquierda>, fillcolor="#eeab7b"] ;
44 -> 45 ;
46 [label=<gini = 0.0<br/>samples = 4.0%<br/>value = [1.0, 0.0]<br/>class = No_Izquierda>, fillcolor="#e58139"] ;
44 -> 46 ;
}